digraph Tree {
node [shape=box, style="filled, rounded", color="black", fontname="helvetica"] ;
edge [fontname="helvetica"] ;
0 [label="cp <= 0.5\ngini = 0.499\nsamples = 272\nvalue = [129, 143]\nclass = 0", fillcolor="#ecf5fc"] ;
1 [label="thal <= 2.5\ngini = 0.397\nsamples = 132\nvalue = [96, 36]\nclass = 1", fillcolor="#efb083"] ;
0 -> 1 [labeldistance=2.5, labelangle=45, headlabel="True"] ;
2 [label="thalach <= 120.0\ngini = 0.499\nsamples = 60\nvalue = [31, 29]\nclass = 1", fillcolor="#fdf7f2"] ;
1 -> 2 ;
3 [label="gini = 0.0\nsamples = 11\nvalue = [11, 0]\nclass = 1", fillcolor="#e58139"] ;
2 -> 3 ;
4 [label="exang <= 0.5\ngini = 0.483\nsamples = 49\nvalue = [20, 29]\nclass = 0", fillcolor="#c2e1f7"] ;
2 -> 4 ;
5 [label="oldpeak <= 2.95\ngini = 0.391\nsamples = 30\nvalue = [8, 22]\nclass = 0", fillcolor="#81c1ee"] ;
4 -> 5 ;
6 [label="trestbps <= 113.5\ngini = 0.337\nsamples = 28\nvalue = [6, 22]\nclass = 0", fillcolor="#6fb8ec"] ;
5 -> 6 ;
7 [label="thalach <= 148.0\ngini = 0.494\nsamples = 9\nvalue = [4, 5]\nclass = 0", fillcolor="#d7ebfa"] ;
6 -> 7 ;
8 [label="gini = 0.0\nsamples = 5\nvalue = [0, 5]\nclass = 0", fillcolor="#399de5"] ;
7 -> 8 ;
9 [label="gini = 0.0\nsamples = 4\nvalue = [4, 0]\nclass = 1", fillcolor="#e58139"] ;
7 -> 9 ;
10 [label="age <= 60.0\ngini = 0.188\nsamples = 19\nvalue = [2, 17]\nclass = 0", fillcolor="#50a9e8"] ;
6 -> 10 ;
11 [label="gini = 0.0\nsamples = 12\nvalue = [0, 12]\nclass = 0", fillcolor="#399de5"] ;
10 -> 11 ;
12 [label="thalach <= 166.0\ngini = 0.408\nsamples = 7\nvalue = [2, 5]\nclass = 0", fillcolor="#88c4ef"] ;
10 -> 12 ;
13 [label="chol <= 220.0\ngini = 0.278\nsamples = 6\nvalue = [1, 5]\nclass = 0", fillcolor="#61b1ea"] ;
12 -> 13 ;
14 [label="oldpeak <= 1.0\ngini = 0.5\nsamples = 2\nvalue = [1, 1]\nclass = 1", fillcolor="#ffffff"] ;
13 -> 14 ;
15 [label="gini = 0.0\nsamples = 1\nvalue = [0, 1]\nclass = 0", fillcolor="#399de5"] ;
14 -> 15 ;
16 [label="gini = 0.0\nsamples = 1\nvalue = [1, 0]\nclass = 1", fillcolor="#e58139"] ;
14 -> 16 ;
17 [label="gini = 0.0\nsamples = 4\nvalue = [0, 4]\nclass = 0", fillcolor="#399de5"] ;
13 -> 17 ;
18 [label="gini = 0.0\nsamples = 1\nvalue = [1, 0]\nclass = 1", fillcolor="#e58139"] ;
12 -> 18 ;
19 [label="gini = 0.0\nsamples = 2\nvalue = [2, 0]\nclass = 1", fillcolor="#e58139"] ;
5 -> 19 ;
20 [label="age <= 57.5\ngini = 0.465\nsamples = 19\nvalue = [12, 7]\nclass = 1", fillcolor="#f4caac"] ;
4 -> 20 ;
21 [label="thal <= 1.5\ngini = 0.444\nsamples = 9\nvalue = [3, 6]\nclass = 0", fillcolor="#9ccef2"] ;
20 -> 21 ;
22 [label="trestbps <= 115.0\ngini = 0.375\nsamples = 4\nvalue = [3, 1]\nclass = 1", fillcolor="#eeab7b"] ;
21 -> 22 ;
23 [label="gini = 0.0\nsamples = 1\nvalue = [0, 1]\nclass = 0", fillcolor="#399de5"] ;
22 -> 23 ;
24 [label="gini = 0.0\nsamples = 3\nvalue = [3, 0]\nclass = 1", fillcolor="#e58139"] ;
22 -> 24 ;
25 [label="gini = 0.0\nsamples = 5\nvalue = [0, 5]\nclass = 0", fillcolor="#399de5"] ;
21 -> 25 ;
26 [label="trestbps <= 177.0\ngini = 0.18\nsamples = 10\nvalue = [9, 1]\nclass = 1", fillcolor="#e88f4f"] ;
20 -> 26 ;
27 [label="gini = 0.0\nsamples = 9\nvalue = [9, 0]\nclass = 1", fillcolor="#e58139"] ;
26 -> 27 ;
28 [label="gini = 0.0\nsamples = 1\nvalue = [0, 1]\nclass = 0", fillcolor="#399de5"] ;
26 -> 28 ;
29 [label="oldpeak <= 0.65\ngini = 0.176\nsamples = 72\nvalue = [65, 7]\nclass = 1", fillcolor="#e88f4e"] ;
1 -> 29 ;
30 [label="chol <= 237.5\ngini = 0.444\nsamples = 21\nvalue = [14, 7]\nclass = 1", fillcolor="#f2c09c"] ;
29 -> 30 ;
31 [label="thalach <= 151.5\ngini = 0.496\nsamples = 11\nvalue = [5, 6]\nclass = 0", fillcolor="#deeffb"] ;
30 -> 31 ;
32 [label="gini = 0.0\nsamples = 3\nvalue = [0, 3]\nclass = 0", fillcolor="#399de5"] ;
31 -> 32 ;
33 [label="trestbps <= 137.5\ngini = 0.469\nsamples = 8\nvalue = [5, 3]\nclass = 1", fillcolor="#f5cdb0"] ;
31 -> 33 ;
34 [label="thalach <= 159.5\ngini = 0.48\nsamples = 5\nvalue = [2, 3]\nclass = 0", fillcolor="#bddef6"] ;
33 -> 34 ;
35 [label="gini = 0.0\nsamples = 2\nvalue = [2, 0]\nclass = 1", fillcolor="#e58139"] ;
34 -> 35 ;
36 [label="gini = 0.0\nsamples = 3\nvalue = [0, 3]\nclass = 0", fillcolor="#399de5"] ;
34 -> 36 ;
37 [label="gini = 0.0\nsamples = 3\nvalue = [3, 0]\nclass = 1", fillcolor="#e58139"] ;
33 -> 37 ;
38 [label="thalach <= 114.0\ngini = 0.18\nsamples = 10\nvalue = [9, 1]\nclass = 1", fillcolor="#e88f4f"] ;
30 -> 38 ;
39 [label="gini = 0.0\nsamples = 1\nvalue = [0, 1]\nclass = 0", fillcolor="#399de5"] ;
38 -> 39 ;
40 [label="gini = 0.0\nsamples = 9\nvalue = [9, 0]\nclass = 1", fillcolor="#e58139"] ;
38 -> 40 ;
41 [label="gini = 0.0\nsamples = 51\nvalue = [51, 0]\nclass = 1", fillcolor="#e58139"] ;
29 -> 41 ;
42 [label="oldpeak <= 1.95\ngini = 0.36\nsamples = 140\nvalue = [33, 107]\nclass = 0", fillcolor="#76bbed"] ;
0 -> 42 [labeldistance=2.5, labelangle=-45, headlabel="False"] ;
43 [label="age <= 56.5\ngini = 0.298\nsamples = 126\nvalue = [23, 103]\nclass = 0", fillcolor="#65b3eb"] ;
42 -> 43 ;
44 [label="trestbps <= 182.0\ngini = 0.16\nsamples = 80\nvalue = [7, 73]\nclass = 0", fillcolor="#4ca6e7"] ;
43 -> 44 ;
45 [label="thalach <= 142.5\ngini = 0.14\nsamples = 79\nvalue = [6, 73]\nclass = 0", fillcolor="#49a5e7"] ;
44 -> 45 ;
46 [label="oldpeak <= 0.4\ngini = 0.42\nsamples = 10\nvalue = [3, 7]\nclass = 0", fillcolor="#8ec7f0"] ;
45 -> 46 ;
47 [label="gini = 0.0\nsamples = 4\nvalue = [0, 4]\nclass = 0", fillcolor="#399de5"] ;
46 -> 47 ;
48 [label="slope <= 1.5\ngini = 0.5\nsamples = 6\nvalue = [3, 3]\nclass = 1", fillcolor="#ffffff"] ;
46 -> 48 ;
49 [label="gini = 0.0\nsamples = 2\nvalue = [2, 0]\nclass = 1", fillcolor="#e58139"] ;
48 -> 49 ;
50 [label="age <= 50.0\ngini = 0.375\nsamples = 4\nvalue = [1, 3]\nclass = 0", fillcolor="#7bbeee"] ;
48 -> 50 ;
51 [label="gini = 0.0\nsamples = 1\nvalue = [1, 0]\nclass = 1", fillcolor="#e58139"] ;
50 -> 51 ;
52 [label="gini = 0.0\nsamples = 3\nvalue = [0, 3]\nclass = 0", fillcolor="#399de5"] ;
50 -> 52 ;
53 [label="trestbps <= 111.0\ngini = 0.083\nsamples = 69\nvalue = [3, 66]\nclass = 0", fillcolor="#42a1e6"] ;
45 -> 53 ;
54 [label="slope <= 0.5\ngini = 0.298\nsamples = 11\nvalue = [2, 9]\nclass = 0", fillcolor="#65b3eb"] ;
53 -> 54 ;
55 [label="gini = 0.0\nsamples = 1\nvalue = [1, 0]\nclass = 1", fillcolor="#e58139"] ;
54 -> 55 ;
56 [label="thalach <= 152.5\ngini = 0.18\nsamples = 10\nvalue = [1, 9]\nclass = 0", fillcolor="#4fa8e8"] ;
54 -> 56 ;
57 [label="slope <= 1.5\ngini = 0.5\nsamples = 2\nvalue = [1, 1]\nclass = 1", fillcolor="#ffffff"] ;
56 -> 57 ;
58 [label="gini = 0.0\nsamples = 1\nvalue = [0, 1]\nclass = 0", fillcolor="#399de5"] ;
57 -> 58 ;
59 [label="gini = 0.0\nsamples = 1\nvalue = [1, 0]\nclass = 1", fillcolor="#e58139"] ;
57 -> 59 ;
60 [label="gini = 0.0\nsamples = 8\nvalue = [0, 8]\nclass = 0", fillcolor="#399de5"] ;
56 -> 60 ;
61 [label="trestbps <= 139.0\ngini = 0.034\nsamples = 58\nvalue = [1, 57]\nclass = 0", fillcolor="#3c9fe5"] ;
53 -> 61 ;
62 [label="gini = 0.0\nsamples = 48\nvalue = [0, 48]\nclass = 0", fillcolor="#399de5"] ;
61 -> 62 ;
63 [label="oldpeak <= 0.7\ngini = 0.18\nsamples = 10\nvalue = [1, 9]\nclass = 0", fillcolor="#4fa8e8"] ;
61 -> 63 ;
64 [label="slope <= 1.5\ngini = 0.375\nsamples = 4\nvalue = [1, 3]\nclass = 0", fillcolor="#7bbeee"] ;
63 -> 64 ;
65 [label="gini = 0.0\nsamples = 1\nvalue = [1, 0]\nclass = 1", fillcolor="#e58139"] ;
64 -> 65 ;
66 [label="gini = 0.0\nsamples = 3\nvalue = [0, 3]\nclass = 0", fillcolor="#399de5"] ;
64 -> 66 ;
67 [label="gini = 0.0\nsamples = 6\nvalue = [0, 6]\nclass = 0", fillcolor="#399de5"] ;
63 -> 67 ;
68 [label="gini = 0.0\nsamples = 1\nvalue = [1, 0]\nclass = 1", fillcolor="#e58139"] ;
44 -> 68 ;
69 [label="sex <= 0.5\ngini = 0.454\nsamples = 46\nvalue = [16, 30]\nclass = 0", fillcolor="#a3d1f3"] ;
43 -> 69 ;
70 [label="age <= 62.5\ngini = 0.172\nsamples = 21\nvalue = [2, 19]\nclass = 0", fillcolor="#4ea7e8"] ;
69 -> 70 ;
71 [label="thalach <= 156.0\ngini = 0.408\nsamples = 7\nvalue = [2, 5]\nclass = 0", fillcolor="#88c4ef"] ;
70 -> 71 ;
72 [label="thalach <= 96.5\ngini = 0.444\nsamples = 3\nvalue = [2, 1]\nclass = 1", fillcolor="#f2c09c"] ;
71 -> 72 ;
73 [label="gini = 0.0\nsamples = 1\nvalue = [0, 1]\nclass = 0", fillcolor="#399de5"] ;
72 -> 73 ;
74 [label="gini = 0.0\nsamples = 2\nvalue = [2, 0]\nclass = 1", fillcolor="#e58139"] ;
72 -> 74 ;
75 [label="gini = 0.0\nsamples = 4\nvalue = [0, 4]\nclass = 0", fillcolor="#399de5"] ;
71 -> 75 ;
76 [label="gini = 0.0\nsamples = 14\nvalue = [0, 14]\nclass = 0", fillcolor="#399de5"] ;
70 -> 76 ;
77 [label="chol <= 245.5\ngini = 0.493\nsamples = 25\nvalue = [14, 11]\nclass = 1", fillcolor="#f9e4d5"] ;
69 -> 77 ;
78 [label="oldpeak <= 1.2\ngini = 0.408\nsamples = 14\nvalue = [4, 10]\nclass = 0", fillcolor="#88c4ef"] ;
77 -> 78 ;
79 [label="oldpeak <= 0.7\ngini = 0.48\nsamples = 10\nvalue = [4, 6]\nclass = 0", fillcolor="#bddef6"] ;
78 -> 79 ;
80 [label="age <= 57.5\ngini = 0.375\nsamples = 8\nvalue = [2, 6]\nclass = 0", fillcolor="#7bbeee"] ;
79 -> 80 ;
81 [label="fbs <= 0.5\ngini = 0.444\nsamples = 3\nvalue = [2, 1]\nclass = 1", fillcolor="#f2c09c"] ;
80 -> 81 ;
82 [label="gini = 0.0\nsamples = 2\nvalue = [2, 0]\nclass = 1", fillcolor="#e58139"] ;
81 -> 82 ;
83 [label="gini = 0.0\nsamples = 1\nvalue = [0, 1]\nclass = 0", fillcolor="#399de5"] ;
81 -> 83 ;
84 [label="gini = 0.0\nsamples = 5\nvalue = [0, 5]\nclass = 0", fillcolor="#399de5"] ;
80 -> 84 ;
85 [label="gini = 0.0\nsamples = 2\nvalue = [2, 0]\nclass = 1", fillcolor="#e58139"] ;
79 -> 85 ;
86 [label="gini = 0.0\nsamples = 4\nvalue = [0, 4]\nclass = 0", fillcolor="#399de5"] ;
78 -> 86 ;
87 [label="trestbps <= 119.0\ngini = 0.165\nsamples = 11\nvalue = [10, 1]\nclass = 1", fillcolor="#e88e4d"] ;
77 -> 87 ;
88 [label="gini = 0.0\nsamples = 1\nvalue = [0, 1]\nclass = 0", fillcolor="#399de5"] ;
87 -> 88 ;
89 [label="gini = 0.0\nsamples = 10\nvalue = [10, 0]\nclass = 1", fillcolor="#e58139"] ;
87 -> 89 ;
90 [label="slope <= 0.5\ngini = 0.408\nsamples = 14\nvalue = [10, 4]\nclass = 1", fillcolor="#efb388"] ;
42 -> 90 ;
91 [label="gini = 0.0\nsamples = 2\nvalue = [0, 2]\nclass = 0", fillcolor="#399de5"] ;
90 -> 91 ;
92 [label="thalach <= 165.5\ngini = 0.278\nsamples = 12\nvalue = [10, 2]\nclass = 1", fillcolor="#ea9a61"] ;
90 -> 92 ;
93 [label="gini = 0.0\nsamples = 8\nvalue = [8, 0]\nclass = 1", fillcolor="#e58139"] ;
92 -> 93 ;
94 [label="thalach <= 170.5\ngini = 0.5\nsamples = 4\nvalue = [2, 2]\nclass = 1", fillcolor="#ffffff"] ;
92 -> 94 ;
95 [label="gini = 0.0\nsamples = 2\nvalue = [0, 2]\nclass = 0", fillcolor="#399de5"] ;
94 -> 95 ;
96 [label="gini = 0.0\nsamples = 2\nvalue = [2, 0]\nclass = 1", fillcolor="#e58139"] ;
94 -> 96 ;
}